635
-6985
-127
1397
-1397
508
-1651
381
-508
-2413
-1143
-5080
7747
-3810
7620
4191
-2667
1651
1016
-2921
2159
-6350
-2667
11176
-1905
-8382
2032
1016
1905
-5080
-1778
889
-7747
4064
-3048
-1905
-2032
-3556
-1905
-3302
-2921
-635
-508
-1143
-3810
-1778
-3302
2413
4191
9398
-635
1016
-1651
2794
-889
8001
1016
-3048
-2540
2667
5715
762
-7620
-9398
-635
254
7239
-5334
889
-1397
3683
-6350
-3683
635
-1651
-1270
12192
-2921
7620
-1016
-6223
-3556
4826
-3302
-2286
-2540
7493
889
-4826
5461
2667
-10795
2286
1778
-6858
-1397
4953
1143
-4699
-4318
-381
-2032
3429
9144
1778
762
3556
-635
1016
0
1778
-3175
-4318
254
381
-3175
-8763
-762
-5080
-2159
3429
-254
5334
1270
-1016
12319
-3429
635
254
-2032
9525
-5080
6223
11557
12192
-6477
-4572
1143
-4318
1397
-2413
4826
11303
8509
-635
-1016
-2540
4445
3175
-4445
2032
6350
889
2032
14478
635
-2667
-2921
10668
1778
5588
0
6223
-635
-7620
2921
1905
-635
-635
-254
2794
-3302
-3175
127
-7239
9398
1016
12319
-381
-3175
-254
-1143
-2286
-6096
7874
2413
0
-4064
-2159
6985
2667
-7493
-1270
-2032
-4445
1016
5207
381
-2286
6477
-7874
-5334
1651
2159
1397
5842
6604
1778
-1270
7239
-1778
-635
-2159
3556
2540
-9779
-4318
-5461
1016
5080
2794
-8763
-889
-4572
635
6477
-9144
1651
1651
7874
4826
-635
4318
2667
-1270
4318
-16002
-5461
9525
6858
5080
-1270
7747
-889
1397
3683
3683
2413
-3556
-2286
-3302
254
9525
1270
4572
127
-2921
5080
127
-3556
3175
2540
2794
-5207
-2286
5588
-3683
-4699
5080
7493
4318
2921
3302
3810
-9906
-889
-127
4064
-3429
6477
-1397
-1143
-889
9906
8509
8128
127
2921
6223
1651
1270
381
-3175
4445
3810
-4572
5207
-3302
-13081
-7620
-16510
508
2159
-1270
2794
-3683
5080
3683
2159
4826
-2540
1270
-1524
2159
2032
-6477
2032
6604
-762
-2032
-1778
4191
889
635
4064
-4064
-3048
-1778
7747
-4191
1778
5461
-6350
6096
4445
-5842
2540
2286
-1270
-3556
-4318
2413
4572
6731
-4699
-6096
2032
-508
-1143
4953
381
4318
2286
381
-1778
1143
6477
1397
1270
127
1143
14478
-889
-381
10160
1524
-254
-254
-2667
-1778
4699
-2667
-4191
-2413
-4191
-3302
-4572
-4318
381
2159
2794
4572
-6477
2159
6223
-508
1905
7112
-3429
4064
-2667
-5969
-2921
9525
-4445
-1905
-3302
4191
3048
-1778
11811
-1143
-10414
-3429
-2921
-12192
254
-381
6604
-2032
2413
8763
1524
1397
-762
2540
8128
1016
889
-13081
-889
3556
-6096
-3683
5080
8890
1016
-5461
-4445
2921
-1270
-4826
-8509
-4699
11430
-5969
-2413
6731
381
0
5715
-3683
2159
1651
8636
6350
508
-2286
-2413
-1905
7493
0
1397
0
8382
3429
3302
-2540
1778
-2032
-127
4064
6096
-3937
2032
4318
2794
-1397
-10668
889
-381
5080
127
-1651
11049
-11811
-4826
-4064
-635
5715
6350
6604
3810
-3556
-6223
2540
-5588
5969
-5461
-4191
4826
-7239
127
-2159
5207
-3048
3048
1270
4445
-1651
2032
-6477
5461
-6604
-508
5715
0
-381
4191
-635
4445
1905
3175
-7620
-3683
-5207
-2921
1905
1397
2032
762
-254
8763
-5969
1270
-1778
-3302
-889
3302
-6985
-254
-127
3683
1778
-2540
3683
-4191
1270
-1016
-889
2032
-254
-1016
-4064
-1397
-5715
9652
-508
-9525
-889
6477
-6350
3429
5461
254
381
-3429
762
7112
-635
-5207
5207
-1778
-8509
3683
5715
2921
-1397
2921
2667
254
4318
5588
5969
1778
1270
2413
-889
-4953
-5842
5715
-635
1016
1524
-2032
-1397
2413
-3048
1778
-7366
508
5969
1143
5969
-381
-1016
2921
-2921
12573
-3810
-4318
-1524
-3429
5080
2032
2540
5588
-508
5969
-9271
-5207
2286
6731
7874
2921
-3302
2794
508
4826
-7493
4064
3302
-9017
-2921
-1905
254
-381
2794
-254
1397
-762
-5969
-3048
762
-3556
-4826
-3048
-1397
-1143
-2667
9017
1397
4318
-6858
3937
889
-5334
-508
-2921
-4699
2413
-127
-762
6350
-2286
2159
8255
3302
4064
-2032
-2413
-5461
-5588
6096
-889
6477
-4953
-7874
-1270
-254
11303
2032
1397
-1016
2667
8255
-7747
4191
2540
-6096
1397
-10795
3937
-5334
2921
762
4318
-5461
254
-5715
1016
-4572
-2032
1905
-2794
9906
-2413
-9906
-8509
-1143
-1778
-5207
-2159
3048
-3048
-127
2540
-16383
635
-3556
2159
-3937
-6604
-7493
2159
1651
2667
1905
1397
2921
-2032
-17526
11176
-1397
-635
3429
1651
-7366
-5715
-254
-2286
4445
5969
1778
6350
-1651
-2032
1397
-1397
-3302
2286
5588
4191
635
-1651
-3048
-6223
-9017
5588
6223
-1778
-1016
-5588
-2667
-1397
3302
-3302
-5715
-3810
3556
6096
-2667
-1143
1143
3429
-7620
-7112
-5334
-1270
-1778
6223
2286
-7239
4318
1016
-2794
-127
-2413
762
-4572
-4699
-5334
-889
-9652
-4064
381
2921
-3937
-1143
4699
508
-1524
-4064
1143
8636
6477
-2794
6223
5461
889
-2794
889
-10795
1651
-7620
-1143
-1524
7874
-7874
4064
-2286
-1143
4064
-4318
254
6096
-11557
-1270
5080
762
-3556
9017
-4445
635
4826
-2667
-127
-6985
1905
3429
-8636
12827
7747
381
5207
2413
-3810
-3429
7493
3048
3429
1270
5334
7239
-3048
-508
0
-635
11303
4953
5588
-5588
-5080
2032
4953
1397
-889
-3683
-2286
762
-6604
1524
6096
-4191
-11049
1651
-1778
-1778
4191
4953
7239
-6985
-12827
-2921
12573
127
381
1905
-6731
3302
-6223
-1143
-4953
-3683
5207
508
3429
10414
-5334
889
-508
8636
-10922
-3937
-6350
4318
-8001
2032
3556
4953
-5969
2794
-5207
127
1016
2921
5080
-4572
-3429
5588
-381
-3175
-12319
-4953
-4318
6858
-1143
-3810
4318
3937
8890
8636
7493
-1270
-8382
7747
-1905
10795
7239
-381
-5334
-1270
3810
0
2032
-889
-4953
8382
3683
3048
381
5969
3175
-4191
1397
-7239
-889
3429
-635
4953
6096
-1651
2159
-762
-1016
-5334
-4572
-1143
-3302
4318
2413
-2286
2540
-2032
-6223
508
-1397
-3556
-3429
6223
-5207
-4318
-3429
762
-6350
2032
7747
635
-6858
-5969
-889
-4318
6604
-3556
2032
127
-2159
-1905
9398
-4191
1016
-508
-8890
1651
-508
2921
-1651
-4699
-1778
9525
-2794
0
-5715
1524
-3810
2413
6985
-381
3556
-381
381
7620
1778
-4953
-2667
-508
-5207
-9144
-508
2286
-1905
-3810
1778
5080
-2286
127
-508
254
-2667
2413
-6858
11303
4826
-1016
1905
2159
-1905
-3175
-889
-5715
15113
-9271
2413
1524
-8763
-127
-127
15113
1270
-11811
-1397
-14224
-9144
-1016
8255
8001
-11176
-3683
1778
-2667
-8128
1778
2413
-127
2540
-4318
-2159
-4064
3429
508
-635
-3556
0
1905
-2794
-5334
-5080
-8128
1270
9144
3302
-1778
2794
-5461
-127
3302
6985
0
-254
6985
-2413
7620
6858
2286
2032
-3683
127
-254
-8001
-508
1905
8128
-5969
-381
1651
1778
-2286
-7366
-4572
-2286
-2794
-1270
508
13716
4953
-5080
4826
5080
-7112
-1397
-3302
4191
-3302
6096
4572
889
635
-2032
-11811
-3048
4826
-3429
1016
254
-10160
6985
-3556
7493
-3556
-508
-1905
-6096
-6477
-2540
-3429
-1651
1016
-3429
1397
7874
-5969
3937
3683
3937
-1778
7874
4318
-1905
127
-6096
-1397
4572
-762
1016
5715
1778
3683
-2667
2413
-3302
635
1270
-2286
1270
-5461
3302
-3429
4572
-2540
635
1397
4445
1905
-1397
3556
-635
-3683
635
-1905
-2159
127
-2159
4826
1905
-254
3556
1778
1905
2159
7112
-5334
-3810
-4572
-7239
-1905
2540
-2540
0
381
3175
-1016
-4699
5461
-889
-5207
1397
-1524
-1397
5207
1397
1524
889
-1524
2159
1397
-6985
-11811
-4826
-4445
3302
-1651
-1905
5080
381
-4953
1397
-1651
3048
3048
-1524
4826
7874
-5207
2413
-3810
-2159
7112
7366
-4064
-4572
2921
-4445
-5207
-4318
-8763
-889
-508
-4064
-1524
-3556
-4445
1778
6350
-3302
127
6223
2032
4191
-5461
-635
-1524
3429
10033
-635
2159
762
2159
-2159
254
508
-5461
-1016
5588
-3048
-6477
1905
5969
254
-4064
4064
-508
5461
-5080
2540
1397
-635
-5334
5461
-1143
-508
-254
1905
4064
-2667
-3683
3810
-635
-1651
-9652
-6477
-7493
-762
-1905
-6096
-4191
3302
1524
-9017
-2159
1016
5334
2286
-7620
-2286
-6731
-5461
0
-5461
-3048
5461
4953
-2286
-381
-5715
-5461
762
-889
1143
2921
7493
2413
-1905
3683
1016
-11557
5715
7112
-508
-3429
-3429
-889
1270
-1397
-2540
5461
8382
5207
3048
7747
-5334
2032
-1778
-1651
5461
-7366
-2159
-6985
-1524
-9779
3048
-2540
-6477
2921
-2540
8128
-762
-7747
-12954
-254
-1524
762
4445
1270
7747
4572
-4826
381
8001
-3556
2667
-4191
-4953
-6985
3556
2921
1651
3302
2540
635
-3048
-1651
3429
7366
4953
-5080
-2159
-1270
1143
-635
-9652
2794
-6223
5842
-1397
-3556
7112
3048
127
-5969
7239
6985
-1778
-4191
-3048
-1270
2159
-4572
2159
-3175
-508
-2667
2540
-3810
254
-1905
2921
-3302
7620
4953
-3175
-889
9779
-1524
6223
-6477
-4445
4826
6985
-1016
6858
2159
-1397
-2540
-2159
-1143
-5842
-6604
1016
3048
4572
2540
9271
-3683
8128
127
2286
-254
-3048
-3175
1524
0
4826
-1524
1016
1905
2540
-3556
-2794
-4064
2032
1524
10160
-3937
6985
762
-5334
762
-5715
-9271
-2540
-2286
-762
4318
-1524
-7239
3048
3175
635
-1905
4445
-6350
508
-2032
6731
3810
-8128
-3048
-3048
5969
-3810
-6477
3048
6223
11176
-254
10668
-1524
-8763
-3302
4699
2921
17780
-1016
6604
-254
-2540
3683
-5207
762
2286
-1397
1397
3175
4191
11811
6731
4064
-4572
-10795
-3175
-1016
-6477
-3937
381
2413
7112
2286
-1397
1016
5207
-1905
4826
3937
-3810
1397
-5715
6985
-508
-1016
1270
-3302
-5461
-7747
2032
6477
2032
-508
8509
1651
1143
1524
889
3937
-3302
2540
1651
0
11557
-5715
-1905
4191
-4064
-5969
3810
-1524
-508
12065
-3429
3810
-1778
-2921
1524
2540
-2032
2540
889
2413
4572
-4445
-1270
-7874
4064
-3429
-381
-8001
0
9779
-762
-12954
0
-5334
-9779
4826
-508
2032
-889
12319
-1778
-2159
-4064
8636
5461
1016
0
-7112
4191
-6604
-635
3810
889
5842
-1270
4191
508
-508
-1524
3302
3556
3175
3302
127
2159
-5461
762
5715
3683
-8128
3937
-6985
5588
-3683
-6604
-3810
6731
-254
-11430
-1016
3429
-2794
3683
3556
381
-762
-1778
-889
6985
-2286
-762
-2159
-4191
5461
13208
-1905
-635
1778
-5969
254
3429
0
508
-8255
1524
3048
-7620
-3556
2032
-4572
-1778
-10160
-4064
2667
3302
2159
-889
-9652
-1778
-4064
-635
-9144
-3556
1651
4826
-4953
-9652
2032
-4191
-1651
-4064
2794
1270
-1270
1397
3175
4318
-5080
-6477
-11176
2286
8255
-4699
-1778
-6223
-762
3683
-3683
-381
-2413
-889
-6096
2159
5334
-127
-2540
-10668
-1524
127
-1143
254
-1651
1651
5334
-4445
1524
-13335
-9271
-127
-7747
8255
5715
4318
2413
3810
-4064
2794
889
3429
-5842
1778
6223
10414
8636
-508
889
2286
3810
4572
-3556
-12319
-8001
1905
-3175
-4064
5842
8763
4699
-2413
635
1905
-508
1397
381
-7239
5588
-3429
4064
-1778
2921
8636
-11430
-2921
6350
2032
-2921
-4191
-2032
2921
-3175
2413
2540
10668
-8636
11684
-7112
3683
-4064
-2413
-6604
-4699
2286
3937
5207
2159
-1143
-5715
-3175
1270
10541
-6096
0
-4572
-1270
-1524
-2921
254
1651
8636
2286
-2921
-1143
4572
-5461
3048
-762
1524
-1143
-6731
2540
-1778
-6731
-1016
-4445
4953
-4318
-1270
3937
-508
3937
-1651
-8382
-2032
-6096
-1016
-254
6985
3048
4318
-7366
-10287
-6223
-6477
4572
-8255
-1016
-5334
-1524
7239
4191
-2032
2286
-1651
-9271
5207
3556
3429
-3175
-2921
-2540
-4826
-2286
-762
-1270
1905
1905
-1905
4572
-13970
2413
889
5588
2921
12192
5080
-4826
-3556
1270
-5461
1524
-127
508
-5461
-11684
-1016
-2921
-6096
-4318
5715
3683
3556
-11430
1270
1397
-381
8763
1905
8255
8001
0
-3175
-2413
-8890
-6477
-635
889
127
-3810
2540
889
508
-6858
5588
381
8636
-1778
-4953
-635
381
5207
-1905
508
-6604
1778
1143
-3937
1143
-2032
-381
-5969
7493
-635
-1524
-2286
762
9017
-5207
4318
2921
1778
6731
7620
635
1651
-4953
-2794
2032
-5969
2667
-3937
-762
-8128
1905
-6350
-1905
-1143
381
-6223
1778
-1397
-2794
-1397
4064
2159
1524
635
-3683
-1397
-1016
127
-8255
-1143
-3175
-3302
-6096
889
2794
1397
127
8763
508
-5842
-3556
2032
1016
9906
508
-4826
-4318
-1016
10160
5080
-1143
-1905
1143
3556
3429
2667
-5207
1524
-2413
5461
3937
-508
6223
-10922
-762
3048
-4318
2794
-3429
-1270
-3429
2540
-6096
4318
6096
-8255
2921
-4064
-10160
-1905
-1651
-6985
381
1524
1143
4445
5588
-2540
-3937
2032
-254
6096
-1905
2159
-12700
889
10922
7239
4064
1524
-2413
5715
3175
10795
3556
2286
4826
-7747
4826
1651
1905
-635
-762
3048
1651
3429
5969
-2032
1905
-5334
1778
-9144
-4445
5969
-889
6477
-3810
-1143
-5969
2413
381
1778
-15240
-7874
7366
-2413
-254
1397
-381
-11557
-1651
-7747
5715
-2794
9144
-889
-254
-12446
8890
-1143
1143
12192
1016
-7493
-3937
2159
-1905
-6477
2159
-1778
2032
-6985
3175
3937
6223
-6731
127
3683
-127
-1524
2159
508
-3048
-381
7620
2794
-4445
2540
1143
3937
-2667
-1397
-10414
-1270
-1397
-4064
-7620
-3429
9271
-6858
889
-254
-2032
-2159
5588
-7874
1397
10033
6858
-6477
3048
1397
-2921
-2921
2413
-2540
-889
-508
1016
1016
2286
10541
-5842
1778
-8382
2032
0
0
-5207
1016
5080
1270
-2286
-1778
-4318
4191
-635
-3683
-5969
-6985
2413
-2413
1524
635
-1397
-381
5207
-16637
-7112
-4318
-4191
1778
-4445
-3175
-1270
-1778
4572
5461
2159
-3556
889
3302
-1016
-1778
3937
5461
-5969
-6223
4318
2667
-1905
-6477
5842
-3937
9525
-1651
-8890
-4572
10668
-635
3556
5588
1270
2921
127
-889
-2032
3810
5969
11811
3810
1778
-1016
6223
-5842
-7747
1143
2667
2794
8890
-6985
6477
-1905
7620
-6096
-1524
2413
-5715
-508
1397
635
-1270
6096
9652
-2413
-635
9017
-4699
2286
7239
1778
3683
-3302
7239
-2794
762
1651
1143
3556
4445
-4953
29083
-127
-2159
7239
-1905
-2413
4445
5207
3175
4064
2413
2667
-4826
-2032
-2540
4064
10414
-8763
-3810
-6858
-1397
2286
-9779
-4191
-1270
-508
5969
3175
-4572
-2159
-8255
4064
-10160
-2032
-1905
5842
8128
1270
1651
-889
-3302
889
-4064
-5969
1397
-2540
5969
2159
4699
635
-10414
-6985
-1651
9398
-254
-4318
-381
-2286
-6985
3429
-2794
-1397
6223
4318
-635
-4572
-1016
2032
6731
-6731
6604
-4572
3429
3175
-3429
2413
-3302
1778
-7620
-2159
4064
-5715
-5969
1651
2413
2794
9017
-3175
-254
4953
2159
4318
-1778
-1524
-254
-5842
381
-3683
3556
-2794
-8890
1778
0
4191
-8001
1524
-1778
-2540
-635
-6096
-3429
-3556
-7620
7620
-5461
-4318
5715
-762
508
7493
-635
-381
-2667
-2159
-1397
-8128
-9652
-4699
4445
2921
4445
-381
-3937
-1016
-762
-508
-8128
1905
4318
3302
0
2540
6096
-1397
-8128
-127
-2921
-2794
-4191
5334
1143
2032
-5969
9525
-889
6223
-2286
4191
-1397
1651
-3810
2667
4445
8001
-5969
-8509
-1397
-5334
1397
-381
-1778
1143
-6223
4191
1397
4572
6350
2159
6223
2032
-762
10033
-127
6223
-1905
2286
-4445
5588
3556
-889
-1651
4445
5969
2159
-9017
-2159
508
-1524
1524
1016
-254
-3810
-5334
4191
-508
4064
5969
889
-127
4191
3302
-4826
-5080
-1270
5080
508
-11049
2921
-3302
1397
1778
-10922
4572
-4191
8382
-11430
-3175
5334
-508
6731
-4826
3048
8890
-762
2032
-2921
-8509
2032
-1270
0
-4445
-9144
-7239
635
-2032
-4572
-2159
4699
5334
1143
-6985
8509
-8382
6477
-9779
5080
-9271
-5334
762
-7112
6350
5080
-1524
-2540
8128
-1016
-4445
-3556
1524
-5842
635
381
1016
2159
0
5334
-5715
-254
1143
-2032
2413
4064
2159
1016
5080
3429
-6604
-1905
5842
-2667
2667
381
-3302
-7366
1016
-9144
-2286
-1016
3302
-3302
1905
1270
2159
5588
4953
-1524
2921
-1397
-8128
-1397
3048
254
-2286
-2413
5080
-2159
-8128
5080
3429
1905
-127
-762
-4953
-5842
6985
4445
2667
-1905
-3810
3810
1016
254
-4826
-6223
5461
4318
1524
-4699
-6223
-1651
-2159
4572
6731
-635
3556
5461
4572
2667
3429
4826
635
-4318
7366
11811
-2667
-6858
-3175
7239
1016
-1905
1397
-2667
4953
-10541
508
0
508
-1270
2921
-4953
-3175
-4445
-2032
1524
-508
14605
1651
4318
3048
-4826
1524
-3429
-5715
-5207
2032
-3175
-8763
7239
-5461
-4572
6096
-762
4826
-3429
-635
762
8128
-2921
-3302
-4191
11303
-5715
127
-1143
8128
6731
254
381
2032
-9779
-4064
1651
-2032
-6858
1270
5588
-6096
6350
1651
-2540
762
-9398
-3937
-8763
3302
-254
-2794
1778
-3302
4572
5715
-4572
-4445
-5969
-508
-6858
2667
-7366
-254
-2794
381
2032
381
-2794
6985
-9652
-3175
3175
-10795
-5334
2921
635
-381
889
1905
2667
2159
-4953
2667
3429
-6731
-889
1270
-4572
-1016
-8382
-5080
5080
8001
-9398
-5588
5588
3937
12954
-6985
6985
-762
762
1016
-508
-3429
-7874
-4445
635
-3175
-6223
3810
-4445
-7239
-4826
4826
508
-2032
-9525
-1778
-762
3429
6731
-1651
-5207
-2540
3810
762
-4953
5080
2540
1397
-7239
-5842
0
1143
-5842
6477
-3302
7112
-6604
3302
0
-5461
-1143
3048
-3175
2667
1524
1397
-1016
-3302
635
4445
1016
-1397
3429
-10287
-2921
889
-4826
-1016
-635
-2921
-4699
-5334
-254
3556
4318
3556
-8128
-889
635
-889
889
2921
2540
-5080
2667
1270
-6096
3937
3556
7493
254
4064
-1651
-127
1143
762
4064
2921
3937
-381
-4826
-4699
-2667
5588
508
8128
1397
-4318
-8636
-5969
-4572
-381
-2540
-5334
-2032
5080
254
-4699
3429
-3302
1143
-2413
7493
1397
2413
2032
-889
2413
-9017
2032
-1778
-7239
2794
6985
-1524
-635
2286
-7874
-4191
4445
3683
127
3556
4064
8382
-1778
2413
1270
-4318
-4953
1270
1651
-4191
-4699
-8001
127
-1651
-4445
-6096
1905
-635
381
7112
1778
-10033
-1651
5207
6096
-4699
-3556
-5461
2159
-1778
889
2540
-14732
5842
-4064
127
10922
-7747
2159
6985
2032
9271
3429
-3810
-6223
3683
-889
-7874
1778
-13843
2413
-6858
4191
-889
-10287
-1778
4953
1651
3937
-1651
7493
6096
-2540
-12573
9398
5588
-5461
2667
-1905
-762
4953
-6096
-1524
6604
-3302
-2413
-1143
-1270
-3048
1143
-381
-1270
381
-2667
2794
9144
-3810
-2921
-9652
-10795
2540
-2286
-7493
-1651
1651
-1397
-5207
381
508
4064
-9144
-5842
3556
-1524
-1016
-3683
-3175
-1270
-6096
-2413
-5207
5588
-6350
-1524
-4826
2667
-254
8636
635
-6604
2032
4064
-10033
1143
381
-5588
1397
5588
10922
6350
3302
3683
-5715
635
-1397
-3810
-3937
-3683
-6731
2794
2921
635
6223
-3556
2667
-3175
-12192
8763
1143
2159
-2667
-7366
-3175
4191
381
1651
-5715
-1524
-7620
4699
2667
-4064
3175
-2286
4953
-4445
-508
6096
381
-1397
-4953
-2667
2159
3429
4953
1270
8382
4572
8128
2286
-3302
-381
1143
6350
-6477
-16002
2286
1524
-3302
-8509
-3175
381
-6223
6223
-2159
-4826
7493
-4826
3810
5588
381
-635
5461
-3937
-127
-3175
1524
4064
-2032
11811
-1397
-4064
1016
2921
-762
9652
5969
2667
2413
762
9271
-635
-4953
-3302
-5715
9144
-4953
-3937
-127
-7620
-4445
-762
2286
-2540
-3556
5207
-381
762
7112
-4953
-1397
6858
-4191
3556
-3556
-9144
-9525
-381
2159
-3810
1524
127
3810
-7874
11557
0
-8255
-2159
-2413
-3937
16637
2921
-3683
889
-381
-1651
-1651
-4826
3429
-1016
-2032
-1270
-6731
-3683
-1524
-3302
2794
-5588
1524
1270
-3937
-1397
14351
6604
9906
10922
-127
-2794
3175
-6858
-889
-762
6731
-6985
1905
-8636
3937
-2159
-1270
-889
3302
-4699
4572
635
-2540
-127
3683
4445
1905
5334
635
8509
5842
-5969
-1905
-4445
2794
4826
4572
-4064
-4064
-1524
-3556
3429
-254
-4699
381
3048
-4953
762
9525
6223
-889
-6096
508
5461
2540
1270
-254
-4318
-2413
-6985
1905
381
8382
127
5461
762
5207
-1143
6477
6858
-1016
-1143
1016
-5334
-9398
-3556
-2794
-3810
-4445
5080
-4191
-1016
-5715
2286
5842
-6477
1143
2921
-6731
1270
-6731
4953
-8001
5588
5334
7747
-2413
-3810
-1524
4953
7239
7366
-1397
10922
3810
381
-3556
-508
-1651
7620
4445
762
6350
5080
3048
-12192
-2540
-127
-5461
-2540
-4064
-8255
-3302
508
-381
8128
-889
-8001
-3048
4699
-1651
-7239
4064
4445
0
5715
1651
-2413
-4445
5969
-1016
635
-2794
381
635
-4572
-1397
4318
9398
3302
-6477
-762
-11430
3683
6477
-2413
-5207
508
1270
-1143
-5334
-3175
-7366
635
-6604
-2794
3683
-5969
-1016
-1270
-5334
-8001
-4191
2032
2413
-1397
6731
-2794
-889
5715
762
-1778
2667
3683
-10795
-1270
-254
-3810
-5588
8763
-3683
-1143
-1270
1143
-2794
-10414
-762
2921
0
1016
-1016
127
-2540
-7874
2794
-3175
254
2286
508
3683
5842
3810
-508
6604
5080
-3175
3048
4064
-1270
-1778
-127
4064
-3048
3302
-5461
-381
-5461
-7366
7874
3175
-1778
-9144
1524
12192
5207
-1016
1016
1651
-2667
-889
4572
-7112
1778
-1397
1397
5207
7874
6604
5715
-5588
1651
5588
-3683
-4699
7620
-4318
3429
13843
8509
-11049
5969
-889
-6350
-5207
-381
-6223
-2794
4191
-127
-4826
-2794
5969
-11430
-6604
-2032
-2540
-7493
-762
2159
4826
-5207
2032
2286
2921
7112
5842
-4572
-4572
-127
4953
2159
-9144
-4318
2540
2286
-1143
-1397
1270
1905
-1016
1397
6096
-1651
2032
635
-2032
2413
5461
-6985
1397
-635
5461
3175
-3175
-1143
2413
-2032
-8890
-3810
-2667
-6223
-6604
2794
-1143
3556
6985
1270
-2032
4064
-2413
8636
-3683
-889
2413
254
7620
-2667
6477
-889
-889
1524
-762
-1270
4064
6985
-1778
-3810
3937
-1524
6477
5461
-4064
-1905
4572
-5715
3937
5461
-127
1016
3429
1524
3048
-2794
-889
-4572
-7747
6731
-12065
-8001
-3937
-1143
889
-7874
2159
1270
-2921
7112
-3302
6096
0
3429
2159
-1651
-5715
1143
-5461
-3302
-6096
4191
254
-381
3048
-3302
381
-762
6350
-127
-1397
-127
-3810
5842
-11684
2159
-7112
9779
-635
-3683
5715
7112
12954
9017
3175
5842
1143
0
3175
-1651
-3429
-635
3810
-1270
508
-2159
10033
-1905
6477
6477
-2540
8636
11557
8890
-1270
-4318
-2921
-2159
1524
6858
5334
381
-3937
-5842
-4445
7874
4318
-889
2921
889
5588
-7493
5461
8255
1143
9906
-5715
-2032
4953
8763
2032
-8382
8382
3937
-1651
-3556
-2286
1651
-2032
-1143
127
-635
3175
6477
-4064
2286
1651
2286
13335
-11938
508
-635
-6477
1397
-3683
254
-4953
-1270
3810
-2413
-7493
-6731
1143
-3429
-5715
-3556
-1778
1651
-1524
1778
1905
-2159
3810
-4953
-6096
1143
889
7493
1016
-3683
1905
-3048
-2794
3429
2540
3048
2794
-4064
-6858
-3429
-2794
-2032
4064
2921
-1905
5588
7239
2540
-889
-6985
1016
3937
-635
-2667
-1651
-5207
5207
-2540
0
-762
-3429
-10414
-508
1016
4953
-7874
889
-5461
6477
9144
8128
5715
-3048
-10160
-3683
635
-7620
5207
1905
4699
3429
1016
6350
5842
-1778
-5207
127
-4572
-9906
8890
6350
-2540
-2667
-2159
-1016
-508
7493
2794
1270
-1016
4064
1397
-3556
1524
-7493
-1778
-635
-4191
4445
4826
-1778
1016
3556
2540
6731
-2794
-1143
-2032
-2032
508
1270
-13970
6350
3048
2667
-2794
-635
-3429
2794
381
-4572
-3429
-4064
-254
-889
-4445
2413
-7493
-3302
-2540
2921
6731
5969
8509
8128
1778
-3302
4318
-2032
-1397
8636
3810
-2413
-508
6223
5969
-2032
5969
-2032
762
-1016
-1016
10541
-1524
-254
-2794
-4318
5207
2921
1143
-8636
-381
-508
-6096
2032
-8382
-2921
-3556
2540
-6858
2794
4572
-6223
381
5461
4699
4318
-6604
-3683
9525
-3048
-2540
-4191
635
3937
-7239
7112
-10795
-5207
-508
8509
-5842
127
1524
1270
5715
762
-4572
4826
2032
4699
-3683
-1397
-3937
-1524
-1270
3937
-2794
-5461
4445
-127
-8255
-254
1651
-6350
-2032
-7366
3429
-2921
-10922
-127
1397
1778
-1905
3937
-6096
10414
-6604
4826
6604
5207
508
-5334
-7874
-7366
-4318
-2921
3556
10033
-4699
7874
2540
-2667
127
-3937
-2032
-1524
-3556
-3556
-6477
-4699
-7112
12827
4191
-4826
-4826
-1651
1651
10414
-127
-2159
-4445
-1143
6223
-508
-127
-1270
-7874
3302
1016
2032
-5842
1397
-5842
-508
-2540
-635
-762
2413
1905
-1651
127
-3175
-4445
11303
-1016
2540
-1524
889
-3429
-2667
-1524
-9271
1778
-762
-6096
-3556
5080
-2667
-4064
-508
-1778
-6350
6477
-889
-4318
-1397
-3048
9271
8128
-4953
-3810
-2921
6477
4826
6350
-1016
3683
-7366
1778
-2540
2413
4445
-2159
2667
-7112
762
-5969
-2032
-2032
1016
-6350
3429
-2540
-2032
-1651
-5207
2540
-2159
889
127
-6858
2540
381
2667
-1905
-3556
-2159
7366
4064
5080
1905
4699
-6477
381
3175
-381
-13843
-1270
3175
0
4318
6096
3683
508
2413
-8763
508
6858
4572
-4953
508
-8001
3683
-381
-6096
-8509
-6223
2540
6477
14097
2286
-3810
-4826
-2159
-1016
-2540
-1524
-3429
-3683
0
7874
-8382
-2667
-254
3937
2540
889
4064
-1143
2286
3683
6096
-254
-1397
0
5207
-11176
3937
-1016
1143
2540
-6731
-2159
1016
5588
1143
3810
-381
3556
-5461
-2921
7239
8001
8763
-2159
9144
4191
4445
11430
3048
2032
-9525
-889
1397
-27
10
-42
-2
-56
-575
-127
8
23
-99
-348
-86
39
121
-120
60
-71
-68
109
-178
-34
-174
-24
-160
-15
49
109
-9
-37
353
-128
-20
-128
-3
51
51
12
100
-19
-77
80
-53
5
-96
55
-72
-212
-321
112
536
-74
-22
-116
98
111
116
-75
49
-32
-105
-156
35
-104
24
-91
-29
-88
26
-955
273
-39
-64
-2
-78
-56
-12
14
-33
-113
-60
-26
28
85
-2
81
-40
-29
1139
-32
96
63
-4
-14
-57
60
241
-279
187
-34
101
-51
37
-40
15
-68
103
-31
68
-4
73
-44
28
87
215
46
62
-171
-18
161
6
-219
74
951
-201
-9
-52
-20
-54
-33
63
24
23
87
-160
106
110
-1
-955
-85
17
53
-25
80
52
-25
-24
42
135
118
124
69
-63
5
-146
-66
-84
-51
-53
27
28
87
52
197
16
74
-62
193
-61
137
-100
-82
102
31
111
40
-113
-18
-37
-10
-46
27
-14
74
78
-120
23
-101
46
-9
154
-7
-68
39
73
7
85
25
21
-102
148
-68
-35
45
33
-71
105
-94
14
-18
-18
136
37
-74
302
44
-101
-899
-63
-47
-13
-128
32
-192
-156
29
17
-93
98
143
128
-26
4
34
68
24
-54
-116
82
25
-50
48
130
33
42
70
87
-16
67
-153
-71
-73
95
-86
-10
35
-69
164
-85
-81
37
58
-14
-25
38
61
76
-43
-120
-80
-51
-31
21
95
16
-55
-212
36
-23
93
-69
66
-57
497
76
-9
-56
-79
244
-53
-10
-35
-16
-95
37
34
517
-86
60
-113
60
-18
102
-71
-53
-71
-346
34
-108
12
104
87
-93
-158
50
121
-5
21
375
105
-130
-27
-13
-25
-53
84
-39
-106
78
1415850
-27
-30
-52
144
-38
-78
-62
108
67
-1100
80
11
0
-119
19
-31
59
-92
7
-33
63
0
58
-91
55
-56
128
97
2
64
-59
63
54
-19
-12
19
67
42
66
-9
33
-75
-83
117
-139
-67
-2
-166
-8
166
-37
140
138
95
65
-17
-295
-22
28
-6
24
-46
-56
-104
-24
-228
70
122
-590
-48
127
-163
-22
174
89
-32
-41
122
-5
-45
44
-149
-52
132
-7
105
-164
-79
-53
-653
-10
-138
12
-82
-2
43
-64
-40
-411
23
-32
13
12
252
-42
15
284
-57
-103
34867
139
78
30
64
157
-55
3
25
7
-7
-118
130
-67
118
18
91
-4
60
23
-82
139
-21
-110
177
-189
-102
45
100
106
80
-141
-62
-4
-8
-45
47
-42
-97
-46
129
-78
62
-29
162
-51
-76
285
38
-123
-104
-113
-139
-735
213
21
-47
-87
-25
-56
-29
66
-56
17
-27
-41
51
60
179
101
-26
-118
-95
35
-100
99
-48
44
20
66
-27
92
-36
-55
23
44
134
88
-2
160
-167
-63
25
93
667
-28
80
89
3
33
-48
-115
-304
-30
-72
81
49
-26
-123
-52
56
9
-67
-2
-108
-19
84
-22
36
83
149
-22
-65
-118
-144
51
-27
41
245
-6
6
-2
-132
109
-128
-24
-105
282
-34
-17
50
-13
85
-63
157
-115
155
-73
68
-155
-32
104
-36
327
142
-15
39
65
-69
198
73
-65
-45
-169
11
-117
30
126
-87
-66
0
85
134
-187
20
295
-116
-100
-50
-135
29
7
12
240
-50
-152
26
-186
-15
-61
-160
-16
-52
-4
-27
-8
1107
179
58
-14
-17
-46
-47
-145
-73
22
14
-89
-21
122
233
-741
7151
5
-10
119
89
17
70
41
-54
36
3
61
23
-13
-74
-18
-30
55
-19
-93
-123
-55
5
-22
-188
-61
128
-28
37
21
-75
71
111
99
56
-61
4
23
133
113
-31
-135
21
-19
-21
110
134
14
14
-2297
284
12
92
-12
-59
-15
-8
135
-65
-117
9
10
-48
-54
-56
-93
52
-55
-10
49
-73
-91
32
-6
63
-2
67
26
-25
105
-75
43
36
39
-38
-127
36
-154
-68
26
25
76
75
45
-69
76
108
-14
-87
-144
105
-72
-49
23
-54
-48
-218
-135
42
50
37
-32
-110
-17
71
61
-98
608
-141
103
69
-144
-77
79
16
-10
51
-15
859
-8
73
-107
-12
70
-57
91
62
-80
-64
53
14
100
169
-144
0
-62
173
-74
21
46
31
7
12
107
-42
38
-28
-84
0
178
47
513
-1
-120
14
-160
175
21
-66
68
87
1
69
64
159
-240
46
-18
73
-60
-1
134
137
-4
-105
33
3
5
0
-122
362
5
-2
-17
24
-45
80
-98
-30
-119
15
93
-18
-66
0
-17
-3
58
-45
-61
136
41
-6
-194
-220
-17
81
-1
101
-120
-57
79
56
-38
29
45
-136
137
-1
-69
24
-143
-151
74
-122
-11
50
120
34
6
81
-138
33
-38
-60
-64
-68
-108
-36
245
52
81
-49
103
294
-249
10
-12
15
3
-35
-121
-79
-9
88
132
570
-93
62
27
-401
2
58
-45
-49
-47
-4
-47
-21
-58
-9
119
-210
65
-10
22
-61
-89
345
5
30
70
39
44
17
55
10169
-49
-56
-123
76
114
-42
-21
-102
79
100
22
77
-117
44
-2
95
-74
-79
-20
39
27
58
86
-32
-70
38
-24
47
-91
-234
-68
-46
-66
-104
-1
-5
12
4
198
-22
53
14
-78
-183
129
55
-58
17
-10
-139
4
-68
-76
-219
57
8
-148
-22
112
-1
-53
90
-14
165
-14
-21
45
34
-56
-324
-8
52
177
41
32
62
-12
63
80
151
-77
233
97
-19
62
-50
-52
52
13
95
46
722
33
-72
-29
-62
128
-48
-61
-101
-1110
-13
-80
-53
-34
-95
47
1
23
-9
-130
-90
11
2646
7
135
-17
-253
39
44
-69
24
-10
-23
33
-52
28
46
-38
-60
-51
23
-13
-13
-42
-83
213
-7
-134
-23
135
2
-72
-7
157
-20
-95
81
-61
-2
-420
26
15
-109
-92
-110
-79
-317
-109
46
-50
-84
18
-114
21
-1
-100
-47
-77
56
-112
-58
-135
13
104
425
-23
-9
-74
-129
23
65
-16
21
-29
36
-115
63
-50
25
-13
19
63
1309
-29
42
-57
211
71
77
-62
-99
95
60
-2
12
255
-127
128
24
47
-277
12
139
-520
58
68
417
-1
-46
66
-19
-118
87
70
-19
-2583
171
32
-152
-547
162
225
-69
54
48
-53
-6
-48
-40
-1
112
76
15
152
-17
61
15
-23
-8
-27
117
-41
-12820
-1174
61
-62
83
190
-65
40
48
116
4
-28
-62
-22
74
-92
64
-5
246
94
32
-53
-12
-33
-61
169
-6
143
-128
82
-39
38
-6
-114
-134
27
2
-42
-125
49
74
15
-82
-75
605
22
4
-212
-1
16
70
68
-7
87
-25
12
-91
114
-65
-231
-139
56
-57
79
-18
12
-71
-16
36
-54
-143
-63
-50
-22
179
-85
-116
7
28
2
48
46
117
-16
-157
-12
28
25
-5
71
64
-7
51
-6
97
-11
46
-145
-235
-92
59
-21
132
48
49
58
32
-112
53
21
-141
-116
82
44
26
-109
-89
51
-79
-20
-87
-79
-12
27
87
-7
-131
441
-22
-2
52
196
-287
13
121
0
13
-84
-156
226
-610
-124
13
-42
11
-9
-1
78
131
137
7
-107
-100
-44
109
49
-41
-11
223
51
83
93
101
103
35
0
8
100
74
88
13
72
-14
-89
-18
24
374
34
-28
-97
-29
80
-107
-80
-29
-38
98
-36
-19
-126
13
92
-15
98
-30
-50
33
-60
30
-11
29
-78
-48
14
8
-13
-23
-147
147
-84
47
43
73
-11
-28
-26
-35
6
46
112
-29
32
-1
-264
153
81
-47
-64
-93
-26
75
-33
116
23
-33
76
-136
74
-1917
15
-20
-138
111
-83
-73
63
34
-86
93
-118
-64
-215
21
-39
68
-163
10
231
87
-119
-62
-37
-69
77
53
-152
-85
-98
12
-31
59
43
276
97
67
63
-14
113
18
6
-47
-25
-64
-27
-37
102
-75
48
119
-47
-41
-8
23
190
138
49
33
-48
-37
33
-8
-92
-95
81
98
-86
92
135
-8
-28
84
-25
-87
-32
-69
94
23
91
87
151
-20
56
-33
44
-142
-52
-123
-148
19
57
-3
3
58
14
90
14
14
127
-157
25
88
-71
33
-50
-23
-61
-90
-21
135
55
-112
-71
50
-151
-21
0
60
-177
-34
102
58
52
-51
-288
8
-63
37
-25
-12
-1335
-46
-29
-59
99
-18
180
63
-30
66
24
-2
-54
-29
-72
-81
92
29
46
-210
-47
-83
100
-73
97
-61
94
29
100
-55
67
-67
-131
-97
-32
26
-62
119
13
94
-46
26
-77
89
1
32
-4
-7
63
-53
52
72
-12
-150
107
-216
113
-58
59
58
-256
95
-31
75
1
31
-110
16
5
141
51
1
60
5
-108
-43
31
324
-36
1
120
140
41
97
234
-113
41
24
43
32
-95
4
24
166
156
109
150
-249
54
172
-113
-67
44
-164
51
135
10
134
275
138
31
-5
-39
89
180
93
-96
24
7
-93
102
-80
7
-13
22
49
-11
-122
87
129
91
-74
101
197
-86
-62
-34
-53
112
28
56
286
-123
83
-124
-52
-22
-89
-28
107
138
-74
-15
71
-68
18
-79
23
12
-78
-182
41
7
-63
-84
48
53
2
-81
319
-5
41
-103
-73
-2
9
-71
139
88
-36
15
22
10
27
-111
-139
128
108
7
12
55
20
30
-3
-10
-28606
-81
-38
-119
28
-142
84
-45
52
31
37
-39
25
-20
-95
18
-18
-38
16
5
-18
10
8
49
80
-12
2
9
-35
-37
-3
72
0
42
177
-40
-100
0
-57
90
-83
-136
35
46
49
41
88
-31
52
-48
34
542
69
-64
-132
98
551
-87
18
-56
-50
-59
-98
75
58
2
-109
-141
8
29
12
4
43
-72
-59
-693
-52
-47
102
-26
-88
43
-32
46
-69
76
142
10
34
-143
-5
-111
-43
32
-52
-117
109
-79
-52
1975
-97
-70
182
-46
44
-36
7
66
54
-414
1
-26
-120
2
-63
-59
85
15
-58
28
-50
-22
-24
34
52
117
13
-53
-85
56
-67
20
-193
127
-125
-85
-44
-76
328
55
-52
-163
29
-2
152
66
21
-346
-30
-45
-203
-35
-151
17
-52
37
37
-34
-129
46
-33
59
-84
-85
50
94
-62
-25
75
65
89
-85
983
-16
-70
-98
78
10
-72
48
-28
1
11
-63
35
24
-135
-63
-48
145
112
-186
-317
13
-124
5
98
63
-55
-15
-64
-36
-20
-124
13
54
-18
1
-95
230
53
84
84
-12
36
-46
170
-52
-60
-62
76
-4
38
-74
-106
-29
-21
106
95
-14
38
-161
7
51
136
2
85
19
68
19
-409
-25
-13
98
-49
-60
48
-45
43
58
24
87
108
-39
-16
197
-86
45
61
-48
-148
23
17
343
104
142
5
-59
-134
-12
-147
-80
16
-11
-158
-258
-11
-91
-29
-17
23
-42
133
113
-97
-43
102
-47
-21
79
40
-18
36
-60
-51
-141
-27
-26
-184
-2
-39
103
-140
-12
103
4
-21
-20
30
-29
-23
131
91
88
-21
54
-33
-15
67
-4
71
-58
-69
92
167
20
253
-17
90
-50
91
-29
102
53
10
-745
165
76
43
54
57
-254
-128
-44
114
-159
-247
-22
-59
161
-3
-9
-59
55
0
-11
-47
-115
-101
49
-11
51
-43
102
48
9
27
-69
18
-84
-64
-17
-637
58
26
24
-55
-58
-95
-37
161
94
-64
-111
2
67
-122
-11
-31
49
5
43
-125
-126
342
-121
34
-49
-67
40
-62
101
154
87
38
97
-132
-19
8
-178
87
-17
48
-1
68
126
-210
12
26
1
81
50
-53
51
6
-42
-44
-18
15
21
-16
-23
-546
-22
28
83
-15
44
-45
-43
38
-135
-187
-56
-98
77
-69
-114
-60
194
62
-34
144
-54
-16
18
110
-155
-66
0
44
0
-26
8
88
407
70
-5
118
69
0
-92
-344
-11
-27
-6
-108
95
-35
-226
13
-103
51
-110
22
-124
103
-61
-237
70
71
-113
-54
-129
-127
-163
60
-94
30
100
60
-26
-114
-16
-186
-19
-114
-19
-59
-38
-50
-55
-18
-102
57
-10
-18
20
-10
-13
209
-36
336
-84
-81
31
43
78
688
-80
-19
67
-12
-178
-59
149
-46
-46
34
23
-121
186
72
63
-68
-159
-11
-334
65
-100
-32
72
-27
32
-76
43
2
-45
4
115
79
30
18
139
-89
-16
-160
-25
6
-75
-535
485
-111
-46
-9
12
77
30
-970
16
-181
-9
88
-16
50
-165
58
51
-41
152
55
32
-42
69
55
-28
-202
-101
178
14
-24
2
69
-119
-43
207
-73
-4
58
-664
30
-16
66
-26
-46
-75
-105
135
-127
-43
57
112
25
43
-87
7
-39
8
122
33
-27
37
130
-29
-123
-40
-148
7
26
2
-19
13
-44
-164
-67
29
255
-37
74
132
28
170
-61
-110
158
-148
-23
-15
3
85
-17
-97
-1953
80
85
-36
82
65
18
-58
-24
21
-363
-112
88
79
69
92
-32
-65
-82
-66
-53
-14
-58
-18
-44
-173
-52
-20
8912
1833
40
-136
109
56
86
-50
31
54
-21
104
-102
27
-117
-77
73
263
12
21
-20
-44
-71
74
-270
-29
-48
575
24
-23
944
9
30
90
73
-84
-96
15
-93
64
157
555
-171
-62
-132
-55
-175
110
42
-64
-69
37
103
-115
90
89
69
61
100
-248
60
-15
46
-87
2
190
6
-50
17
53
206
94
-29
15
-93
-240
150
70
22
-97
-6
87
-27
-57
76
96
110
6
39
59
-125
104
-110
-44
6
-48
111
-62
-7
37
79
45
-50
145
-15
38
69
6
21
82
-19
5
-233
295
-74
56
-192
21
-85
-293
-226
-94
-19
-81
40
27
534
-1
-202
641
-20
34
-9
166
135
272
-59
-63
139
-135
50
-359
-177
-107
56
145
-52
-56
-1876
-10
-213
-4
62
-48
62
6
37
-34
-25
-111
-14
-139
-14
-203
209
-24
57
25
-192
-80
-5
74
-39
-62
-39
-79
-11
-17
-31
10
-40
47
14
211
-17
46
-38
-26
-40
15
137
55
-128
-12
5
88
-8
-98
106
16
19
48
63
-60
23
187
-311
51
-67
-26
-137
-66
-60
-108
-117
-165
-255
-50
114
-200
75
-168
14
-160
7
-30
-7
-8
-1117
74
-85
-13
140
-29
7
-65
-154
-43
103
107
-30
11
3
24
9
-51
30
-38
72
54
-60
-152
-117
31
9
27
135
-55
-148
-44
99
-162
118
-5
-154
75
-3
-36
-6
215
-102
49
115
25
5
-78
29
-76
-111
-77
61
-54
-8
-22
-40
55
-22
-77
39
37
115
58
-10
-35
-11
-347
-8
70
59
12
153
95
124
-99
-96
66
-36
23
69
152
-120
-56
92
-45
104
11
-26
20
-100
-199
-6
-284
6
-37
118
66
-94
49
-15
-605
131
-22
41
21
-1
-33
-116
-52
-50
1
98
4
136
-74
225
-112
23
128
-6
-76
-209
-9
0
176
-15
46
110
72
36
-55
63
-18
-73
-21
79
51
-133
57
39
32
105
-227
36
37
221
-287
-22
41
-69
2
39
-106
41
-57
24
-82
51
-201
43
38
66
-176
35
-64
-11
15
-27
6
27
179
-29
-2
-16
85
2
7
68
372
23
-27
-69
-20
45
84
-16
51
20
-76
-133
25
-97
134
-73
37
33
-25
11
79
-75
-42
218
95
46
-61
26
54
-151
62
24
-3
-9
67
-26
-27
79
13
-77
133
-7
-51
-46
76
53
-36
-75
-94
279
-318
120
-324
157
-45
-22
-38
130
76
-57
-38
-111
43
92
-93
-102
57
30
352
118
1
-29
-112
-86
133
77
1
-72
-55
-127
-8
-175
-20
107
60
41
36
2
34
-26
146
-87
36
12
1
-2
-85
-6
20
-40
-48
-7
103
79
188
-130
-12
82
128
137
-54
-20
183
141
82
80
-93
77
30
59
-68
39
54
64
42
86
-33
-141
57
76
-23
-122
-90
-68
-52
-146
21
18
23
-59
-34
-148
192
-18
172
-65
-41
-113
68
-39
-68
-73
107
19
22
-64
-130
-32
82
-76
-1535
66
140
82
46
-54
26
50
-51
13
-26
-6
-116
-55
75
-5
66
-6
129
-81
6
-25
-99
-24
-61
-93
-64
2
-117
-71
-116
55
145
105
126
1294
-12
1
103
225
-66
-33
-145
-25
-23
-133
95
64
-31
25
-122
-73
14
3
49
32
-4
95
37
-76
-45
-36
-100
4
-59
-65
-318
-34
-61
-84
36
104
-81
-11
-79
107
26
-126
-27
10
117
-32
9
151
38
-15
-35
-82
-99
-125
-44
445
-66
28
-62
241
-94
-43
25
-82
12
29
-44
-40
57
-55
-25
-17
-321
-22
-206
53
-39
34
12
77
64
5
58
4
22
-44
-230
32
-145
-39
-315
-22
66
-139
-61
160
-14
-83
63
32
-84
-28
1
-75
-111
-15
-13
102
403
-84
24
-23
27
-125
-1312
-52
-452
-70
-41
-14
207
-71
5
-169
74
40
-86
34
-50
-47
15
-60
100
36
22
64
30
92
-86
-47
-152
46
3
93
1258
373
-32
12
-16
-107
-237
-319
-39
22
-231
57
-10
-29
44
-49
-126
-353
-3522
79
-247
-47
64
-41
-52
-17
-35
-4
-83
-63
111
-68
166
32
90
-943
60
71
88
-47
98
10
-21
-40
-81
18
-81
164
25
-84
51
51
-59
-3
52
2
-23
-4
-53
52
-55
61
202
103
40
25
-76
43
-153
-18
147
110
77
-38
179
0
89
67
4
77
67
55
-319
-9
100
212
32
-43
-18
26
109
-89
-24
-90
-110
13
-4
25
17
167
-65
-96
-90
47
116
-24
9
141
-14
-50
-82
33
27
-93
-59
-26
-6
6
-97
-67
-82
-47
26
21
97
-42
89
-146
-1
68
-25
-155
-100
145
-6
113
190
34
69
2
-28
1
-18
-65
-51
-110
-90
48
-23
-173
-24
334
-133
35
-96
121
-76
-95
-126
41
49
18
56
392
14
187
75
12
-23
-66
77
4
45
11
-350
-50
0
23
-25
-8
34
121
198
-4
72
29
-52
740
-215
-419
2
-100
29
-77
-124
16
-84
166
37
39
46
-30
187
-91
103
-66
17
36
-38
-47
-204
50
-28
17
138
-108
-43
96
1570
-170
36
-77
2
-187
58
-31
-2
-162
-79
27
23
144
-124
169
77
17
-120
-75
17
19
-112
3
-91
-131
57
-176
162
-42
-133
37
-241
-65
-85
65
58
-47
-110
-2086
-32
41
54
14
108
28
105
55
10
-21
44
-36
44
102
-16
101
4
-17
24
-41
25
35
-5
112
-91
-77
-80
110
-12
202
-36
-76
-147
53
49
27
-94
6
-71
14
-19
106
-60
11
60
-88
-93
19
68
-71
94
-44
16
-88
-66
-40
-79
-35
-186
68
-126
16
75
227
128
-121
77
75
-119
134
-47
73
132
-85
99
39
47
-59
99
61
-97
213
-62
28
-7
-63
-54
80
39
-49
1
-73
55
42
-147
-69
13
-79
163
139
67
79
318
-151
-120
-70
-90
2
228
53
81
100
-68
19
108
103
45
-43
-49
29
63
95
186
-31
27
-93
-121
-29
-8
105
125
154
147
-138
-81
-59
93
21
-10
67
-46
-35
-98
-66
136
41
23
-67
-94
84
101
42
44
71
87
-115
51
21
91
74
-103
75
2
-26
101
-125
108
12
-84
-39
55
62
179
-33
-59
-29
-22
20
-25
63
-32
-808
93
315
86
13
32
-121
20
1
88
14
21
-81
-46
83
-26
-116
30
45
-108
-451
-46
-601
152
68
80
-28
-63
159
59
9
67
-98
-45
-47
-33
-16
-86
-55
-29
15
79
-63
629
-44
-59
20
-71
91
23
136
6
-76
58
-8
22
-171
-1
-57
-112
-18
44
-88
7
44
161
-87
66
-61
-10
-106
-16
63
-1
-70
104
7
47
133
59
-47
30
132
-123
1
-305
-28
22
6
106
-70
-127
73
-39
-11
-18
-158
71
66
118
69
76
-143
-109
-17
-102
121
-84
-21
2
-32
9
120
-47
76
82
14
-91
-44
128
-33
185
57
-92
-30
-137
-23
33
101
70
-42
105
355
-33
-25
-81
-37
-73
92
109
-34
76
13
-78
30
-790
116
-3
-87
161
55
-49
-27
-70
-99
11
3
-55
-18
120
-75
-12
-91
-11
-41
202
86
190
7
55
35
22
2
144
4
-3
-9
-81
-55
-53
10
-124
138
33
22
-19
-75
-14
21
55
65
143
140
-18
-11
35
39
61
48
-83
8
90
71
11
-1
6
-19
-69
90
54
317
-25
33
-151
-4
-70
75
-87
54
-85
108
27
-66
-17
-65
-76
8
-33
-77
14
70
-67
101
81
-55
-117
-56
94
-116
121
-91
-70
144
87
149
182
-279
139
118
-49
-73
-36
73
31
-111
94
-154
22
-85
-9
-29
-136
33
-40
38
45
-55381
-37
29
-53
-88
-67
-159
-101
62
-10
39
-14
-6
16
-93
-51
-117
129
51
182
690
20
11086
-65
-39
122
-38
81
-17
37
-109
31
-28
-92
-96
215
7
51
-113
-49
-309
12
62
-96
-81
-61
27
-502
12
-98
-251
-300
-86
-64
39
140
-54
18
-19
-131
-7
28
494
-139
-31
-10
3
-91
70
165
72
60
-13
-20
98
-120
-32
20
-84
123
45
389
-78
-45
-44
-63
1085
-955
-116
19
-114
9
-179
148
65
73
-58
-63
136
16
66
245
-51
-65
-97
-38
-28
40
36
94
105
-93
-29
1270
97
-14
50
-68
72
-60
30
14
47
44
2
-63
57
64
-84
3
73
27
-140
-6
94
-64
32
-4
-22
352
-119
-21
18
105
33
-101
116
-109
-117
75
142
5
-43
104
92
87
-61
-72
48
-33
-10
79
-55
75
19
67
53
-119
-47
44
-109
57
-22
124
81
15
75
284
1250
57
209
-75
1604
-1
-144
72
166
-80
-188
109
-83
-69
-17
-7
-71
82
-22
-104
24
25
-33
128
86
-115
79
-116
35
-120
58
30
2
217
-68
429
9
59
-100
-126
126
-10
-94
-70
52
0
-33
182
-268
-692
85
-13
-58
-101
8
-54
145
-11
-53
-43
-167
30
58
43
131
-23
-53
11
247
-59
5
-337
-15
72
-7
-70
-125
44
-114
-13
-144
-25
46
-206
113
-77
-77
-6
25
-56
44
24
152
-91
61
-16
-12
35
16
-216
-64
18
74
14
41
172
-28
146
63
33
-69
140
-164
-71
-52
93
-225
33
-5
-101
-11
-153
-47
-15
-36
-3
-132
-96
51
40
-48
41
-5
-33
62
-58
-43
27
-144
-31
-94
58
150
-34
-56
-70
-25
13
152
-808
64
-174
-14
-92
77
-84
122
79
112
-81
196
116
105
-133
-104
-12
-21
-67
-38
13
5
-8
23
9
-7
556
62
41
-1
-51
-78
41
-27
-15
13
-44
78
49
-89
59
-16
-55
-2
112
10
-101
88
-16
-151
-70
-154
-42
864
-13
39
-119
339
-56
89
-67
134
-105
-79
-109
29
-27
-1
-19
34
-101
29
30
-47
103
114
109
49
22
314
113
29
156
0
-154
-3
-53
73
2936
134
67
-47
112
43
-89
-99
19
-33
-20
-89
-15
-91
42
117
-32
-72
-58
96
48
-108
-16
415
37
-202
-97
-28
-37
-45
-253
-95
70
-116
-74
-24
-60
-190
8
-15
-92
33
79
-47
42
147
56
-11
4
-111
39
-31
-53
70
-64
36
3
129
113
63
-201
-21
-10
-68
-41
-100
-13
27
22
48
-28
71
61
20
-44
61
2
-93
-75
129
-71
91
11
-25
-42
-57
-261
-97
25
76
163
85
73
-110
-46
147
203
139
106
22
-53
7
63
25
330
6
-52
-41
18
101
-107
-51
34
-13
72
-149
-26
178
-75
8
3
-79
71
120
-48
53
40
-54
22
-99
92
-68
94
48
-2
-46
-119
-4
184
-34
-97
140
132
-32
-71
-25
-3
89
67
14
-100
44
92
56
-80
17
21
154
28
2
-40
501
135
197
-129
279
13
84
-119
75
59
149
155
-143
-538
9
54
-194
13
84
-105
204
90
-107
201
-51
89
-88
-150
2
-108
-7
99
92
260
-37
1277
106
44
2
-25
-15
-144
11
-34
149
101
23
3
-83
36
-27
-89
-3804
-86
-163
0
70
67
-39
42
-187
-939
73
99
-16
-90
126
58
-99
-10
203
77
25
-172
-76
-15
57
-70
-5
12
-96
56
-47
142
156
34
-89
-22
-9
-79
3
-25
78
57
200
59
80
4
102
110
-34
-91
128
1150
-149
165
-74
295
-12
-55
-45
16
-67
-91
-27
-80
-42
103
-3
-62
-38
123
72
56
-52
36
-73
49
-93
-137
-144
151
5
23
112
-63
83
-31
44
102
-29
-91
40
76
-6
-11
-37
-304
-515
81
4
19
30
106
-184
1864
-82
180
-113
-129
-62
-67
-104
216
-76
-51
-45
4
-4
77
72
65
-88
53
-61
-118
69
-31
-27
52
-141
-31
-80
63
-43
-99
-1550
-60
9
150
124
-27
33
37
-117
31
-87
3
1032
-9695
73
-1
529
-97
67
-5460
75
29
-36
-124
43
32
-5
-147
-102
24
-31
11
-801
-59
-26
43
76
48
-51
137
64
-15
25
197
3
585
-110
-74
104
119
-38
-136
21
35
65
113
142
-297
-9
123
71
60
-47
73
147
62
95
85
167
5
30
178
66
6
-21
-48
85
99
97
-3
-158
-15
-39
62
-88
-138
-35
-191
-128
88
-11
0
133
31
50
-149
73
113
-121
-3
24
7
-55
28
-21
-18
-119
29
-71
-58
-340
-221
-67
-38
76
111
193
-150
107
-94
-152
-96
55
45
36
67
-19
73
-111
12
-112
6
-121
-94
-42
-22
-95
35
-107
120
-60
87
100
28
-163
41
-130
-9
129
-303
-58
-76
109
-10
-125
32
218
-23
-81
-38
-92
-55
-153
91
61
110
107
-101
2
-81
1
54
-199
-71
-44
141
26
-96
8
-143
216
76
-30
10
-52
39
-156
-66
43
19
103
-27
12
-111
-19
34
-9
-36
-112
15
61
175
28
8
50
5
59
751
21
-107
-135
-240
85
64
-16
-17
-160
-109
-86
73
-32
-143
30
39
92
-79
-29
-175
-3
-280
-71
-46
164
-31
-43
-129
-518
17
-118
25
22
124
26
-51
-52
14
141
-31
-7
53
63
-20
11
-1
-143
84
20
-70
19
-98
-10
40
56
-8
-77
-67
-184
181
24
47
76
-1
-39
113
70
0
-88
36
-171
-16
7
83
-3
-16
61
164
-159
-18
110
107
-54
176
-184
74
109
77
-137
-225
-75
-215
-13
121
51
-187
-278
0
-50
105
30
37
187
9
47
77
-118
76
78
15
-65
91
-18
57
-45
-51
-44
105
37
-34
161
57
-81
82
-54
86
96
-98
-107
-46
-143
-61
4
162
-74
4
-100
-50
57
-82
-335
8
-56
21
41
-43
47
28
61
-118
-117
42
86
131
19
45
-231
349
-77
-12
26
19
-166
194
-81
62
12
64
-2
-42
1117
67
-74
-4
67
276
-204
43
-87
-44
13
35
-80
-31
-102
-29
30
179
-30
-123
-111
85
6
63
-81
-78
52
79
27
70
-4
-77
-93
145
-82
-11
-86
285
109
32
-44
-27
19
141
47
-122
116
119
112
69
-90
-23861
6
-37
126
52
-178
33
26
75
-41
-68
77
-44
-47
15
-331
39
59
74
30
-50
-105
9
-115
-655
27
26
-42
-44
99
28
151
11
36
-30
38
-28
1850
-1
3
-188
-31
82
76
41
-234
-71
-61
-76
38
-200
93
-137
-31
-134
-37
120
20
56
-359
24
-180
-48
-31
-61
-109
46
20
49
-23
-144
-41
113
33
127
-154
71
-149
-14
-31
50
-157
27
43
23
-13
-170
3
-21
3
91
-250
57
28
813
69
-32
-77
54
-93
20
-88
-60
-6
30
35
-27
140
-94
106
-69
-31
49
83
5
-128
50
132
82
89
-64
43
12
9
179
-40
57
4
-99
93
20
-84
152
-1029
118
-65
-41
55
135
-79
-742
-45
7
-41
-17
-67
4
-17
4
-133
76
-332
173
-75
-118
-142
75
-18
202
105
42
-96
-23
-113
114
-43
3
9
3
-55
-4
-249
21
-40
-164
78
-75
-139
70
-14
-112
33
57
-36
177
-20
136
76
32
116
-100
-148
134
141
66
-35
34
102
19
-15
-115
-69
-6
-162
51
-87
7
111
-63
195
2
318
47
-220
-56
45
-29
-508
98
31
133
713
24
-22
-54
137
176
34
23
33
27
-343
23
21
-7
-56
100
-43
-113
-114
-3
14
-20
68
160
1473
-539
-90
-61
75
256
51
-78
-20
143
-159
51
-26
93
112
-89
60
83
44
-59
121
10
23
31
165
43
929
-54
-12
-11
65
6
52
4
120
164
-72
-33
22
-66
65
98
55
-97
-9
-108
-1095
140
32
-97
-151
47
203
100
-12
79
-12
-156
-28
-14
46
-140
-98
129
120
106
55
-107
-112
37
-179
17
-138
184
-135
103
-111
1
506
-202
-429
-25
-91
120
36
-39
0
-15064
69
-15
45
-4
-120
-38
37
-75
54
128
-9
80
-42
-16
-154
298
-8
-27
-23
-36
-118
2
60
-22
23
-165
-51
383
-97
19
40
358
30
37
113
116
-89
13
-736
-54
-120
55
47
-75
91
-5
34
16
-27
-38
-57
-42
-5
-135
-567
-80
136
35
-45
-54
47
-110
148
76
18
-193
5
30
72
-15
-38
53
45
-108
-81
5
0
149
-8
55
-3
-255
2
82
-12
67
-15
-77
92
-22
-13
43
-4
-105
-15
2
98
-2969
-21
-11
-134
-136
-44909
-23
-66
91
-29
97
-113
-70
84
26
94
-18
83
48
-13
-99
67
75
-1
138
36
157
317
10
56
12
-27
156
-141
51
152
-24
-8
-37
-89
23
-13
172
388
91
-40
-2264
-68
76
-133
-31
10
88
29
118
-69
-45
46
-103
13
58
-99
-66
33
-44
76
89
-65
64
-65
-120
-85
-7
-37
44
-34
278
-67
135
2
-28
-21
59
29
-6239
-166
-9
-35
-95
-82
-18
74
-96
-71
-44
73
-39
55
119
-283
-114
34
-51
-35
-42
38
60
-95
-92
51
-51
19
41
91
-226
-20
22
33
-84
-76
71
-70
4
232
6
-17
-122
44
-3
-15
-76
55
60
22
-9
-30
2
-136
-19
45
118
831
34
17
-4808
-73
-2
143
-26
-19
-133
-86
96
-65
-28
-106
-169
117
-15
-78
48
2
207
-84
-76
100
132
-97
-68
91
46
66
-29
-114
-24
-23
-29
-107
-47
69
103
11
-40
34
5
169
86
31
130
-89
76
-74
-171
1352
4
-132
18
-18
-154
37
-13
121
-27
-89
-35
-9
43
47
158
25
128
23
-32
33
-3
56
-106
-845
93
143
-96
-134
-34
-105
-108
-770
-23
11
29
-66
-103
-5
27
154
-13
-116
44
-72
-292
-109
-35
612
-140
33
-517
-107
-42
122
25
157
106
6
-125
22
115
25
195
-88
-85
-17
-34
197
-94
-51
63
157
87
-266
69
-6
-83
1
384
37
63
21
49
353
40
29
70
11
6
-130
61
18
53
-2
-32
26
-30
-97
-110
-116
-69
-83
-18
-35
38
204
-21
-93
-98
-78
124
-34
70
129
105
-32
66
-659
-796
-42
-53
-107
30
-105
-103
-76
-50
18
55
562
-103
-157
151
-72
46
-62
-73
-57
-10
-94
-170
-249
85
-25
157
-34
54
34
-147
29
-8
246
180
-41
74
-93
15
89
-53
13
-127
-56
-105
-22
-68
60
113
48
-16
12
-72
38
-117
14
132
-17
108
45
-49
-22
124
-162
-81
-95
-99
75
-13
-72
-11
43
41
-127
139
-128
30
48
-49
-105
-41
34
11
149
-100
21
-76
138
19
140
-58
-16
-52
-10
6
263
-31
-112
-152
-53
72
-99
46
78
91
-114
87
66
-70
156
-16
48
189
-271
-112
81
0
55
-193
-59
-22
12
106
-92
-50
88
32
40
160
-26
-107
-133
-123
-15
-6
-52
49
-47
-95
14
-55
95
130
-111
0
-33
60
78
46
-66
61
78
-54
-88
-179
-64
-31
293
52
-151
-25
186
69
172
-36
74
44
53
-36
-151
90
22
-78
-73
-33
36
30
-56
64
80
-70
-25
-196
-85
-150
77
603
-90
65
-36
-79
66
-38
26
107
71
-69
151
-25
8
-55
34
86
34
-5
-157
-16
103
-37
33
98
141
-13
8
-179
169
-115
38
-13
-28
-11
-164
368
-136
73
115
147
-22
142
32
635
-148
-33
-23
-66
-119
205
-23
144
64
-59
-33
-69
-59
-153
-36
12
-1001
-76
74
182
118
58
31
-51
14
2
58
4
-67
467
67
-29
38
-69
17
-102
-37
-28
59
-67
24
-42
147
128
29
-70
-7
-134
71
-84
51
-21
132
-196
-133
-317
72
-105
-122
39
-20
140
-26
35
103
-22
-123
-27
88
30
-47
-68
99
11
13
84
36
-82
54
85
-20
-14
79
24
-11
-66
15
-83
3
463
90
-13
44
189
-13
-14
-216
-27
-37
59
-71
18
-3
-17
-41
-11
104
-5
-161
-6
-25
-30
222
12
85
-39
-194
246
-235
9
-72
-5
-25
-121
-30
27
-5
71
64
45
-159
104
-45
102
156
67
-46
-3
25
-78
-21
-140
73
61
-198
383
35
-159
16
-99
21
-18
-1007
-156
120
-41
-86
-18
105
230
41
631
68
67
69
16
61
22
-31
-276
19
-58
126
61
-84
-99
-22
28
-10
142
66
-132
11
-33
156
-34
25
-15
-54
-35
12
-71
144
18
42
92
-30
-113
98
64
-73
43
-43
-39
65
-12
-142
-65
48
-72
-74
41
126
109
17
25
-17
28
84
-97
57
37
-30
-73
60
-96
-42
-77
-152
54
-56
31
-149
73
-85
452
-35
-13
74
36
-129
-80
30
127
-56
-57
-8
-161
95
-110
0
140
124
63
-81
77
79
67
6
173
27
29
-6
-19
-302
-120
-95
-43
-15
46
-5
188
-46
-6
-122
13
44
-192
-13
97
161
-39
115
-54
-17
-88
-80
-25
-126
-87
8
113
33
171
49
126
-68
2569
24
-103
-152
-230
38
-50
-67
-105
101
796
61
-124
-1
-17
-1
-91
-109
-102
44
-75
-25
69
-85
-175
59
260
58
-20
2453
33
-2
143
169
192
34
105
124
62
-77
61
129
-17
-31
-145
11
-101
47
-182
-136
-747
98
-51
-110
65
-67
56
57
-72
-194
55
-125
12
-41
-39
-4
-116
-10
-117
-136
222
114
40
96
8
34
-78
-50
126
-198
85
645
92
8
119
-145
-80
-121
-135
216
-65
117
8
79
-1
-174
-103
47
-26
-21
-89
86
18
-13
-135
78
-77
19
-48
123
-43
-16
-21
-79
-89
7
13
112
91
212
23
1
82
49
6
34
68
-28
38
57
-58
-333
-693
37
23
42
148
-140
211
6
-108
-294
-5
27
-95
-3
46
177
40
135
-100
45
-23
34
107
40
-116
-20
-79
1
-27
16
-68
207
16
95
-89
-52
-58
-18
-35
-45
117
-139
24
2
-35
-1
41
29
63
-116
115
69
1657
-25
59
-121
95
233
-41
10
27
81
50
27
-84
-170
-2
5
-44
49
-198
848
-61
-50
62
122
-47
-6
41
-129
112
-46
263
51
13
-71
-3
-186
65
20
-49
-85
7
164
-16
10
8
-22
92
-64
-106
91
205
-128
36
637
-58
2748
-1
90
-87
69
362
79
-141
-31
49
-5
-78
40
64
-4
25
-8
24
-110
-7
286
97
79
-72
188
135
127
-52
88
74
-3
90
-147
49
-28
77
-37
-88
133
-180
14
-47
30
11
-82
0
34
-74
-41
-170
-21
78
-58
164
71
-107
112
-121
-4
63
19
127
63
-4
-40
49
-36
-28
-106
11
97
-54
-289
-5
-110
113
31
69
-143
-24
23
-26
63
-21
-162
-103
-72
106
-120
94
11
-56
90
100
22
78
183
-117
107
100
19
104
35
-37
-9
-52
56
7
-110
112
-93
-226
34
23
161
-534
50
85
151
-23
-23
3125
17
105
-154
210
7
6
-34
4
4
-17
35
39
146
6
-91
-16
-90
-10
-134
-43
37
-6603
-102
60
-138
-13
1
-49
86
-42
-895
58
46
36
69
3
1
-1199
-54
-54
46
-130
-92
-86
96
71
-73
4
-165
-205
62
15
-8
-33
-54
1333
2
42
116
-236
127
-173
-94
-15
58
-70
36
33
-9
-178
136
2
-37
24
-10
-56
118
115
-7
-125
-14
-6
-109
-18
85
-1355
6
53
-178
8
-195
89
-1332
80
-66
-556
-82
32
4
36
61
-911
-206
462
64
110
-130
116
191
0
91
-126
28
-80
-25
22
149
35
12
77
64
-47
21
57
-32
-49
-25
54
-31
23
-319
-166
-58
-145
11
41
-82
-24
1189
-19
-54
-17
27
-51
79
38
65
-96
-1333
-44
147
-72
123
-38
-44
-43
108
-76
-45
-48
94
-22
23
108
-134
5
-104
34
-100
-44
40
-49
163
-77
-47
130
92
-42
166
143
-103
-189
-89
31
16
146
-252
94
146
-36
-5
14
-56
-71
-38
-58
95
-97
46
14
-41
-8
101
92
-23
-36
51
97
70
-41
86
38
34
-120
102
-16
2
33
150
-84
-28
52
23
-40
-100
106
-99
6
48
-130
-1216
24
49
-19
44
87
-99
-199
-451
-141
98
-29
-7
169
-160
19
89
137
-9
158
108
-51
97
4
16
72
124
-82
-44
-40
74
-121
-117
-100
93
-87
139
14
-137
-152
72
-76
36
-103
-130
-76
-32
80
41
149
48
-75
-23
-21
-12
-10
-103
-24
-85
-225
81
45
259
-90
123
50
126
4
-204
-120
54
123
501
122
-137
-10
20
-76
109
-66
25
-207
-34
-58
100
-113
-45
-84
-132
70
130
109
-117
-3
125
-20
137
8
16
71
-4422
-62
-30
12
-150
20
93
-122
-8
65
-107
-78
-104
-192
21
-200
147
149
108
138
125
-62
-15
-133
47
-110
210
210
-147
24
-70
89
-110
-103
255
204
59
49
-19
-31
-167
-31
-21
-86
-37
-29
119
74
92
446
-40
44
46
-3
30
17
30
-137
-32
56
182
-91
74
-192
-29
56
65
-168
-139
-150
80
111
-13
-366
194
-113
-64
-15
-114
0
86
-8
-28
-57
-18
-68
26
169
-227
16
-247
-3
178
167
77
84
-135
28
75
-254
26
-103
-21
120
-189
-77
-10
-18
147
-63
18
-140
27
-153
-126
3
-101
161
75
-90
-34
1130
-74
-138
-21
-113
-5
116
-125
1016
92
76
54
-4
6
-37
45
81
-88
-4
17
82
-179
60
38
137
419
44
-85
-48
-1749
-86
7
12
112
41
-100
83
31
-63
-639
45
61
78
2
-30
21
59
-5
-49
27
16
1300
20
-29
-11
105
-1
246
-155
47
28
-10
-12
52
-66
55
122
-7
127
-409
-173
961
-21
37
-11
60
-37
-129
59
-111
120
19
-56
-3
-31
-33
-122
105
-18
47
-123
84
498
112
57
37
29
107
55
-152
-146
-66
6314
-24
-38
61
-58
-13
-163
-16
-45
52
42
89
358
137
170
74
22
197
-5315
43
-124
65
-59
196
-66
129
118
158
-13
81
197
44
0
-21
16
260
-144
-38
79
-103
11
84
-88
-76
99
5
23
-106
-85
49
63
-13
2036
729
58
-122
-1
44
-41
113
-49
37
-41
11
81
43
61
1
79
-24
96
-320
-39
431
-213
86
61
-9
-41
-103
62
21
9
-1
-81
-102
13
17
33
93
-178
-7
40
110
-149
53
-128
-323
-146
118
-74
-159
-5
8
-6
-40
-134
13
97
-36
-2
77
-9
41
16
35
-72
75
-61
90
40
50
108
-191
72
0
135
-152
132
-15
-103
105
-18
4
44
-36
-36
41
-67
-21
-16
45
-75
-29
136
93
101
-13
7
-11
114
538
-42
138
-41
-31
68
-77
-56
131
13
-43
-11
-28
231
137
33
83
-127
-28
72
-92
-38
77
437
26
93
99
30
31
35
84
57
-1
5
-98
64
-391
69
8
23
33
-65
-54
-22
76
49
62
-1
86
-2
-6
96
-33
64
87
-78
51
124
39
-122
-218
41
159
56
90
-190
-40
-6
88
-45
-22
-42
35
63
-176
-50
-121
-70
23
25
16
-62
-190
20
175
77
-79
-39
90
48
60
64
-50
29
-4
87
-71
166
63
-3
-7
-7
-53
474
107
39
27
45
78
0
31
-123
-71
87
-110
173
-342
-79
-20
-2
-55
10
47
51
58
-37
-95
-32
50
-13
-202
-275
-260
-199
-112
30
29
10
-30
140
90
-923
251
-58
87
50
36
2
128
116
10
52
15
-130
-19
61
-94
-59
-24
45
-80
18
627
-557
-50
27
46
148
44
19
81
-42
78
30
-93
-137
56
-24
-155
-99
-28
-36
-85
41
-95
28
-1
123
-103
-5
5
32
-332
-169
-104
398
-50
-20
65
-96
54
-6
6
76
74
-25
16
144
75
-146
-80
55
-23
-180
-96
-19
195
-97
-12
79
-800
142
38
238
-164
-103
-77
-76
-85
-78
58
311
-5790
-71
780
138
14
-22
365
-40
94
35
44
-107
70
142
205
45
-121
133
-17
111
18
-193
45
23
-159
68
54
-168
-81
23
-2
35
91
-57
78
62
114
-16
-339
43
-2403
94
87
-67
23
104
114
-99
-133
-30
-39
119
-91
-13
64
-123
54
17
-39
-30
-13
-17
-48
14
209
-105
-204
24
74
-76
98
-92
18
-159
-168
-1857
154
4
78
74
-68
55
145
-161
37
-5
-61
-55
-157
93
0
-1327
-16
-88
14
82
131
-70
-37
-86
-53
-139
-127
14
-41
6
96
-137
-99
63
-71
-104
16
-102
47
-47
-57
-142
-3
-75
-175
-125
-106
53
55
-36
110
-117
-52
155
-109
-43
95
66
-118
-31
-14
25
-62
-34
-121
-15
130
-208
-122
543
-4
26
78
60
88
-89
25
102
9
-19
-35
-90
-64
81
19
104
-83
-72
14
-119
145
127
-22
-174
207
-109
-94
22
23
-109
-118
53
171
198
64
-67
95
14
-71
644
72
51
-93
-67
127
23
-30
23
39
148
186
70
18
-199
-31
48
175
-44
86
-96
-48
26
-65
-15
75
-239
68
-33
8
-134
85
194
67
67
-110
28
-50
-11
-30
-24
-27
245
186
-67
-28
-232
-80
34
17
197
-2
-428
-7
-67
372
90
73
-21
-8
-59
-122
28
-122
-9765
-2
-100
36
73
-42
69
156
224
91
-3
53
1
16
43
-47
-71
-20
-112
-79
18
108
41
65
-260
52
2
163
-157
-2
-44
-135
-74
208
-172
-11
15
113
25
37
-66
-70
-115
-113
80
114
72
-147
17
-91
-205
-100
96
-20
-68
-120
50
-19
-76
187
64
112
109
105
-8
-5
-74
-159
-85
119
-100
-15
-36
8
174
-107
-60
-107
-79
98
-108
-22
-106
15
-53
53
170
43
144
-46
-27
38
-46
-41
-126
-128
186
-58
-30
12
-3
-153
55
15
-32
-100
-25
-47
-19
-26
-25
62
-31
37
-34
658
113
-102
-35
4
147
-28
56
-131
77
66
25
17
-29
234
-27
-99
-74
91
-28
-48
23
-75
29
90
9631
85
35
11
-49
129
120
-143
-98
642
145
-53
53
56
-1
-81
112
-31
1372
25
52
-56
193
-18
141
69
85
-62
-55
-26
-81
-176
263
25
-17
59
114
-33
-121
51
46
-57
-136
6
58
-74
217
-209
25
25
30
50
44
37
11
-20
256
-120
-14
-107
111
150
57
-152
70
-14
-60
-51
-25
-13
5
-155
52
56
-478
-73
-57
-29
33
103
-99
-15
33
89
-76
30
-426
-71
-11
123
-101
-689
-51
36
-133
24
61
56
146
39980
18
97
-33
-41
-80
-2
20
-1207
-37
-35
65
78
-87
10
-156
-40
-163
59
-371
-79
-55
-27
9
124
-36
-105
11
60
-81
160
-169
35
11
-95
59
-21
-45
205
202
-645
-537
-575
-624
-711
-630
-609
-554
-683
-744
